package com.ffyytt.phonecall;
import android.graphics.Bitmap;
public class MNISTXG extends GradientBoostingDecisionTree {
	public static String predict(Bitmap bitmap, int imgW, int imgH)
    {
        int[] intValues = new int[imgW*imgH];
        bitmap.getPixels(intValues, 0, bitmap.getWidth(), 0, 0, bitmap.getWidth(), bitmap.getHeight());
        double[] input = new double[imgW*imgH];
        int pixel = 0;
        for (int i = 0; i < imgW; ++i) {
            for (int j = 0; j < imgH; ++j) {
                input[pixel] = (1-(intValues[pixel++] & 0xFF)/255);
            }
        }
        return predict(input);
    }
    public static String predict(double[] input)
    {
        double[] score = score(input);
        int maxIds = 0;
        for (int i = 0; i < score.length; i++)
        {
            if (score[i] > score[maxIds])
            {
                maxIds = i;
            }
        }
        return maxIds+"";
    }
    public static double[] score(double[] input) {
        double var0;
        if ((input[358]) >= (0.3356365)) {
            if ((input[462]) >= (0.096747145)) {
                if ((input[481]) >= (0.78231907)) {
                    if ((input[321]) >= (0.22376719)) {
                        if ((input[242]) >= (0.100283876)) {
                            if ((input[331]) >= (0.27014333)) {
                                var0 = 0.41721854;
                            } else {
                                var0 = 0.019230768;
                            }
                        } else {
                            var0 = -0.035714287;
                        }
                    } else {
                        if ((input[653]) >= (0.47404203)) {
                            var0 = 0.13114755;
                        } else {
                            var0 = -0.052631583;
                        }
                    }
                } else {
                    if ((input[435]) >= (0.034847282)) {
                        if ((input[322]) >= (0.9981977)) {
                            var0 = 0.09016394;
                        } else {
                            if ((input[272]) >= (0.981533)) {
                                var0 = 0.0020188408;
                            } else {
                                var0 = -0.05419376;
                            }
                        }
                    } else {
                        if ((input[456]) >= (0.96999395)) {
                            if ((input[324]) >= (0.68424886)) {
                                var0 = -0.032786887;
                            } else {
                                var0 = 0.33221477;
                            }
                        } else {
                            if ((input[204]) >= (0.000019032295)) {
                                var0 = -0.050373137;
                            } else {
                                var0 = 0.115384616;
                            }
                        }
                    }
                }
            } else {
                if ((input[215]) >= (0.033538535)) {
                    if ((input[511]) >= (0.020195005)) {
                        if ((input[406]) >= (0.7687206)) {
                            if ((input[382]) >= (0.057593934)) {
                                var0 = -0.04347826;
                            } else {
                                var0 = 0.24683546;
                            }
                        } else {
                            if ((input[372]) >= (0.007216683)) {
                                var0 = 0.4860242;
                            } else {
                                var0 = 0.25133213;
                            }
                        }
                    } else {
                        if ((input[438]) >= (0.07935667)) {
                            if ((input[14]) >= (0.015403319)) {
                                var0 = 0.067307696;
                            } else {
                                var0 = -0.04989817;
                            }
                        } else {
                            if ((input[352]) >= (0.19390118)) {
                                var0 = -0.0063291155;
                            } else {
                                var0 = 0.40410957;
                            }
                        }
                    }
                } else {
                    if ((input[510]) >= (0.0932741)) {
                        if ((input[409]) >= (0.068182535)) {
                            if ((input[263]) >= (0.97772443)) {
                                var0 = 0.1460177;
                            } else {
                                var0 = -0.049450554;
                            }
                        } else {
                            if ((input[238]) >= (0.042567134)) {
                                var0 = 0.39088577;
                            } else {
                                var0 = 0.08966565;
                            }
                        }
                    } else {
                        if ((input[456]) >= (0.9668521)) {
                            if ((input[95]) >= (0.033234864)) {
                                var0 = -0.038922157;
                            } else {
                                var0 = 0.23053892;
                            }
                        } else {
                            if ((input[620]) >= (0.022057079)) {
                                var0 = 0.040540542;
                            } else {
                                var0 = -0.053645123;
                            }
                        }
                    }
                }
            }
        } else {
            if ((input[407]) >= (0.0587817)) {
                if ((input[384]) >= (0.91846883)) {
                    if ((input[408]) >= (0.047015548)) {
                        if ((input[188]) >= (0.98196596)) {
                            if ((input[128]) >= (0.020947048)) {
                                var0 = -0.035714287;
                            } else {
                                var0 = 0.16346155;
                            }
                        } else {
                            if ((input[357]) >= (0.9958609)) {
                                var0 = 0.067307696;
                            } else {
                                var0 = -0.05259047;
                            }
                        }
                    } else {
                        if ((input[328]) >= (0.8671521)) {
                            if ((input[462]) >= (0.79708385)) {
                                var0 = -0.028846154;
                            } else {
                                var0 = 0.38054606;
                            }
                        } else {
                            if ((input[76]) >= (0.015326101)) {
                                var0 = 0.067307696;
                            } else {
                                var0 = -0.046075087;
                            }
                        }
                    }
                } else {
                    if ((input[359]) >= (0.8428824)) {
                        var0 = 0.080152676;
                    } else {
                        if ((input[15]) >= (0.085011706)) {
                            var0 = 0.019230768;
                        } else {
                            if ((input[615]) >= (0.055761185)) {
                                var0 = 0.013274336;
                            } else {
                                var0 = -0.054983675;
                            }
                        }
                    }
                }
            } else {
                if ((input[512]) >= (0.25294584)) {
                    if ((input[489]) >= (0.08930744)) {
                        if ((input[319]) >= (0.9613805)) {
                            if ((input[356]) >= (0.6222693)) {
                                var0 = 0.2782258;
                            } else {
                                var0 = -0.041516248;
                            }
                        } else {
                            if ((input[488]) >= (0.038984034)) {
                                var0 = -0.050019413;
                            } else {
                                var0 = 0.053941905;
                            }
                        }
                    } else {
                        if ((input[328]) >= (0.15509665)) {
                            if ((input[627]) >= (0.05217934)) {
                                var0 = 0.45565826;
                            } else {
                                var0 = 0.027972028;
                            }
                        } else {
                            if ((input[302]) >= (0.13729838)) {
                                var0 = 0.3970252;
                            } else {
                                var0 = 0.026343798;
                            }
                        }
                    }
                } else {
                    if ((input[388]) >= (0.27730727)) {
                        if ((input[303]) >= (0.35402143)) {
                            var0 = 0.4461207;
                        } else {
                            var0 = 0.019230768;
                        }
                    } else {
                        if ((input[514]) >= (0.7906387)) {
                            if ((input[658]) >= (0.3684159)) {
                                var0 = 0.2714102;
                            } else {
                                var0 = -0.01569507;
                            }
                        } else {
                            if ((input[482]) >= (0.8198322)) {
                                var0 = 0.1499568;
                            } else {
                                var0 = -0.048452873;
                            }
                        }
                    }
                }
            }
        }
        double var1;
        if ((input[358]) >= (0.19765645)) {
            if ((input[435]) >= (0.058337964)) {
                if ((input[266]) >= (0.95938814)) {
                    if ((input[496]) >= (0.09817584)) {
                        if ((input[245]) >= (0.04049639)) {
                            if ((input[427]) >= (0.13268913)) {
                                var1 = 0.28421316;
                            } else {
                                var1 = -0.037200384;
                            }
                        } else {
                            var1 = -0.043697536;
                        }
                    } else {
                        if ((input[537]) >= (0.9152993)) {
                            var1 = 0.1593102;
                        } else {
                            if ((input[11]) >= (0.027966108)) {
                                var1 = 0.018438512;
                            } else {
                                var1 = -0.05315643;
                            }
                        }
                    }
                } else {
                    if ((input[434]) >= (0.0011098539)) {
                        if ((input[510]) >= (0.98102546)) {
                            if ((input[596]) >= (0.9658872)) {
                                var1 = 0.14472915;
                            } else {
                                var1 = -0.046840493;
                            }
                        } else {
                            if ((input[386]) >= (0.9980771)) {
                                var1 = 0.032443266;
                            } else {
                                var1 = -0.05341024;
                            }
                        }
                    } else {
                        if ((input[596]) >= (0.66634136)) {
                            var1 = 0.1997662;
                        } else {
                            var1 = -0.041925624;
                        }
                    }
                }
            } else {
                if ((input[539]) >= (0.033566035)) {
                    if ((input[489]) >= (0.629472)) {
                        if ((input[400]) >= (0.7233186)) {
                            if ((input[38]) >= (0.017993124)) {
                                var1 = -0.007833693;
                            } else {
                                var1 = 0.23530555;
                            }
                        } else {
                            if ((input[356]) >= (0.03988751)) {
                                var1 = -0.05181442;
                            } else {
                                var1 = 0.0681194;
                            }
                        }
                    } else {
                        if ((input[353]) >= (0.5040022)) {
                            if ((input[241]) >= (0.62523746)) {
                                var1 = 0.24890335;
                            } else {
                                var1 = -0.0049701543;
                            }
                        } else {
                            if ((input[273]) >= (0.033746444)) {
                                var1 = 0.31008738;
                            } else {
                                var1 = 0.18647008;
                            }
                        }
                    }
                } else {
                    if ((input[185]) >= (0.04406982)) {
                        if ((input[382]) >= (0.1171917)) {
                            if ((input[212]) >= (0.98550546)) {
                                var1 = 0.07146629;
                            } else {
                                var1 = -0.048396096;
                            }
                        } else {
                            if ((input[317]) >= (0.022525571)) {
                                var1 = 0.2905016;
                            } else {
                                var1 = -0.040033773;
                            }
                        }
                    } else {
                        if ((input[556]) >= (0.02350732)) {
                            if ((input[482]) >= (0.019044446)) {
                                var1 = 0.16384713;
                            } else {
                                var1 = -0.029827625;
                            }
                        } else {
                            if ((input[156]) >= (0.024722163)) {
                                var1 = 0.012023189;
                            } else {
                                var1 = -0.05380949;
                            }
                        }
                    }
                }
            }
        } else {
            if ((input[407]) >= (0.060350716)) {
                if ((input[407]) >= (0.08309149)) {
                    if ((input[356]) >= (0.9589174)) {
                        if ((input[408]) >= (0.07819655)) {
                            if ((input[7]) >= (0.027145017)) {
                                var1 = 0.07009175;
                            } else {
                                var1 = -0.052858215;
                            }
                        } else {
                            if ((input[353]) >= (0.016256759)) {
                                var1 = -0.03306824;
                            } else {
                                var1 = 0.1983831;
                            }
                        }
                    } else {
                        if ((input[43]) >= (0.6054689)) {
                            var1 = 0.020830268;
                        } else {
                            if ((input[615]) >= (0.055761185)) {
                                var1 = 0.01362495;
                            } else {
                                var1 = -0.05470075;
                            }
                        }
                    }
                } else {
                    if ((input[384]) >= (0.96509236)) {
                        if ((input[436]) >= (0.03257015)) {
                            var1 = -0.028246237;
                        } else {
                            var1 = 0.2616994;
                        }
                    } else {
                        if ((input[455]) >= (0.6647434)) {
                            if ((input[626]) >= (0.70590025)) {
                                var1 = 0.21729095;
                            } else {
                                var1 = -0.03986387;
                            }
                        } else {
                            if ((input[184]) >= (0.96708596)) {
                                var1 = -0.0031392016;
                            } else {
                                var1 = -0.054364886;
                            }
                        }
                    }
                }
            } else {
                if ((input[512]) >= (0.25294584)) {
                    if ((input[489]) >= (0.08930744)) {
                        if ((input[319]) >= (0.9613805)) {
                            if ((input[356]) >= (0.6222693)) {
                                var1 = 0.23459665;
                            } else {
                                var1 = -0.049991902;
                            }
                        } else {
                            if ((input[488]) >= (0.038984034)) {
                                var1 = -0.049931444;
                            } else {
                                var1 = 0.023082912;
                            }
                        }
                    } else {
                        if ((input[351]) >= (0.2851453)) {
                            if ((input[328]) >= (0.88969314)) {
                                var1 = 0.22939089;
                            } else {
                                var1 = -0.03212736;
                            }
                        } else {
                            if ((input[627]) >= (0.16244042)) {
                                var1 = 0.294477;
                            } else {
                                var1 = 0.040305197;
                            }
                        }
                    }
                } else {
                    if ((input[514]) >= (0.7906387)) {
                        if ((input[355]) >= (0.40095168)) {
                            if ((input[490]) >= (0.076199554)) {
                                var1 = -0.025086915;
                            } else {
                                var1 = 0.30843085;
                            }
                        } else {
                            if ((input[354]) >= (0.392218)) {
                                var1 = 0.055441536;
                            } else {
                                var1 = -0.046544243;
                            }
                        }
                    } else {
                        if ((input[360]) >= (0.40835273)) {
                            var1 = 0.28242052;
                        } else {
                            if ((input[510]) >= (0.8462187)) {
                                var1 = 0.09787022;
                            } else {
                                var1 = -0.0485392;
                            }
                        }
                    }
                }
            }
        }
        double var2;
        var2 = Math.exp((0.5) + ((var0) + (var1)));
        double var3;
        if ((input[549]) >= (0.0000002546982)) {
            if ((input[354]) >= (0.0000000014764727)) {
                if ((input[322]) >= (0.8113479)) {
                    if ((input[462]) >= (0.8660929)) {
                        if ((input[466]) >= (0.056082055)) {
                            if ((input[403]) >= (0.00003751782)) {
                                var3 = -0.036415182;
                            } else {
                                var3 = 0.19026549;
                            }
                        } else {
                            if ((input[272]) >= (0.048301026)) {
                                var3 = 0.02653486;
                            } else {
                                var3 = 0.4292082;
                            }
                        }
                    } else {
                        if ((input[347]) >= (0.022238791)) {
                            if ((input[297]) >= (0.0000020863397)) {
                                var3 = -0.052642066;
                            } else {
                                var3 = 0.09016394;
                            }
                        } else {
                            if ((input[325]) >= (0.029324073)) {
                                var3 = -0.03747162;
                            } else {
                                var3 = 0.12025317;
                            }
                        }
                    }
                } else {
                    if ((input[323]) >= (0.86805546)) {
                        if ((input[521]) >= (0.0069922036)) {
                            if ((input[206]) >= (0.01795114)) {
                                var3 = -0.051206198;
                            } else {
                                var3 = 0.009480624;
                            }
                        } else {
                            if ((input[206]) >= (0.028232418)) {
                                var3 = -0.036294695;
                            } else {
                                var3 = 0.32038125;
                            }
                        }
                    } else {
                        if ((input[548]) >= (0.0000038165035)) {
                            if ((input[323]) >= (0.7421333)) {
                                var3 = -0.039290156;
                            } else {
                                var3 = -0.05421993;
                            }
                        } else {
                            if ((input[211]) >= (0.000013426009)) {
                                var3 = -0.04759468;
                            } else {
                                var3 = 0.19339623;
                            }
                        }
                    }
                }
            } else {
                if ((input[378]) >= (0.51443565)) {
                    if ((input[466]) >= (0.06838742)) {
                        if ((input[15]) >= (0.018754978)) {
                            var3 = 0.067307696;
                        } else {
                            var3 = -0.04956897;
                        }
                    } else {
                        if ((input[148]) >= (0.10352638)) {
                            var3 = -0.000000001330461;
                        } else {
                            if ((input[683]) >= (0.22391298)) {
                                var3 = 0.013274336;
                            } else {
                                var3 = 0.4851676;
                            }
                        }
                    }
                } else {
                    if ((input[377]) >= (0.76228416)) {
                        if ((input[522]) >= (0.049724653)) {
                            var3 = -0.041871924;
                        } else {
                            var3 = 0.26047906;
                        }
                    } else {
                        if ((input[350]) >= (0.11495359)) {
                            if ((input[440]) >= (0.000046681624)) {
                                var3 = -0.04298643;
                            } else {
                                var3 = 0.1460177;
                            }
                        } else {
                            var3 = -0.053993255;
                        }
                    }
                }
            }
        } else {
            if ((input[319]) >= (0.081155166)) {
                if ((input[299]) >= (0.0071292706)) {
                    if ((input[351]) >= (0.95563275)) {
                        if ((input[295]) >= (0.91682684)) {
                            if ((input[348]) >= (0.90957713)) {
                                var3 = -0.028846154;
                            } else {
                                var3 = 0.2540984;
                            }
                        } else {
                            var3 = -0.046875004;
                        }
                    } else {
                        if ((input[518]) >= (0.00033037513)) {
                            if ((input[319]) >= (0.09584011)) {
                                var3 = -0.0537151;
                            } else {
                                var3 = 0.020958083;
                            }
                        } else {
                            var3 = 0.067307696;
                        }
                    }
                } else {
                    if ((input[322]) >= (0.81612515)) {
                        if ((input[38]) >= (0.0005177478)) {
                            var3 = 0.3768473;
                        } else {
                            var3 = 0.067307696;
                        }
                    } else {
                        var3 = -0.045454547;
                    }
                }
            } else {
                if ((input[378]) >= (0.52244043)) {
                    if ((input[355]) >= (0.19024476)) {
                        if ((input[150]) >= (0.000108969856)) {
                            if ((input[294]) >= (0.97517335)) {
                                var3 = 0.10176992;
                            } else {
                                var3 = -0.050373137;
                            }
                        } else {
                            if ((input[157]) >= (0.000043658503)) {
                                var3 = 0.3909091;
                            } else {
                                var3 = -0.028846154;
                            }
                        }
                    } else {
                        if ((input[234]) >= (0.07244476)) {
                            if ((input[37]) >= (0.0026351032)) {
                                var3 = -0.045112785;
                            } else {
                                var3 = 0.115384616;
                            }
                        } else {
                            if ((input[275]) >= (0.07834825)) {
                                var3 = 0.00471698;
                            } else {
                                var3 = 0.488782;
                            }
                        }
                    }
                } else {
                    if ((input[210]) >= (0.0020521758)) {
                        if ((input[329]) >= (0.0007859643)) {
                            if ((input[93]) >= (0.03394404)) {
                                var3 = 0.019230768;
                            } else {
                                var3 = -0.053116776;
                            }
                        } else {
                            if ((input[40]) >= (0.0017933762)) {
                                var3 = 0.27876106;
                            } else {
                                var3 = 0.013274336;
                            }
                        }
                    } else {
                        if ((input[379]) >= (0.7677482)) {
                            var3 = 0.40625;
                        } else {
                            var3 = -0.04435484;
                        }
                    }
                }
            }
        }
        double var4;
        if ((input[549]) >= (0.0000002546982)) {
            if ((input[322]) >= (0.75519085)) {
                if ((input[462]) >= (0.8660929)) {
                    if ((input[430]) >= (0.04820279)) {
                        if ((input[493]) >= (0.029235141)) {
                            if ((input[457]) >= (0.017596968)) {
                                var4 = -0.04716983;
                            } else {
                                var4 = 0.034098756;
                            }
                        } else {
                            if ((input[351]) >= (0.852211)) {
                                var4 = 0.2013626;
                            } else {
                                var4 = -0.026425038;
                            }
                        }
                    } else {
                        if ((input[424]) >= (0.0000014744381)) {
                            if ((input[326]) >= (0.004264546)) {
                                var4 = -0.04057556;
                            } else {
                                var4 = 0.08303556;
                            }
                        } else {
                            if ((input[327]) >= (0.25805086)) {
                                var4 = -0.03416417;
                            } else {
                                var4 = 0.30515477;
                            }
                        }
                    }
                } else {
                    if ((input[297]) >= (0.0000021713327)) {
                        if ((input[347]) >= (0.022238791)) {
                            if ((input[462]) >= (0.70724785)) {
                                var4 = -0.017771281;
                            } else {
                                var4 = -0.05358684;
                            }
                        } else {
                            if ((input[353]) >= (0.041415267)) {
                                var4 = -0.042433925;
                            } else {
                                var4 = 0.083815135;
                            }
                        }
                    } else {
                        if ((input[495]) >= (0.035077576)) {
                            var4 = -0.038141247;
                        } else {
                            var4 = 0.27674043;
                        }
                    }
                }
            } else {
                if ((input[409]) >= (0.0000000032922725)) {
                    if ((input[323]) >= (0.7962117)) {
                        if ((input[521]) >= (0.0065190922)) {
                            if ((input[206]) >= (0.024335578)) {
                                var4 = -0.052446913;
                            } else {
                                var4 = -0.006717294;
                            }
                        } else {
                            if ((input[262]) >= (0.038408883)) {
                                var4 = -0.030824408;
                            } else {
                                var4 = 0.22381961;
                            }
                        }
                    } else {
                        if ((input[548]) >= (0.0000038165035)) {
                            if ((input[633]) >= (0.000000007781307)) {
                                var4 = -0.05400875;
                            } else {
                                var4 = -0.03427219;
                            }
                        } else {
                            if ((input[211]) >= (0.000013426009)) {
                                var4 = -0.04667222;
                            } else {
                                var4 = 0.13771695;
                            }
                        }
                    }
                } else {
                    if ((input[378]) >= (0.098300576)) {
                        if ((input[158]) >= (0.02221258)) {
                            var4 = -0.039698176;
                        } else {
                            if ((input[431]) >= (0.4965493)) {
                                var4 = 0.017829908;
                            } else {
                                var4 = 0.31189236;
                            }
                        }
                    } else {
                        if ((input[435]) >= (0.000003027897)) {
                            var4 = -0.05277423;
                        } else {
                            var4 = 0.020971311;
                        }
                    }
                }
            }
        } else {
            if ((input[319]) >= (0.081155166)) {
                if ((input[350]) >= (0.85515916)) {
                    if ((input[354]) >= (0.011429515)) {
                        if ((input[630]) >= (0.007811997)) {
                            var4 = -0.04966376;
                        } else {
                            if ((input[569]) >= (0.2758551)) {
                                var4 = 0.16349503;
                            } else {
                                var4 = -0.02830707;
                            }
                        }
                    } else {
                        if ((input[273]) >= (0.017638601)) {
                            var4 = -0.030134255;
                        } else {
                            var4 = 0.30354968;
                        }
                    }
                } else {
                    if ((input[518]) >= (0.00023773109)) {
                        if ((input[292]) >= (0.009668401)) {
                            if ((input[328]) >= (0.0000055952123)) {
                                var4 = -0.054537673;
                            } else {
                                var4 = 0.019677002;
                            }
                        } else {
                            var4 = 0.051337928;
                        }
                    } else {
                        var4 = 0.064461134;
                    }
                }
            } else {
                if ((input[234]) >= (0.07244476)) {
                    if ((input[321]) >= (0.18577954)) {
                        var4 = 0.09850421;
                    } else {
                        if ((input[432]) >= (0.00041009416)) {
                            var4 = -0.05268229;
                        } else {
                            var4 = 0.019326245;
                        }
                    }
                } else {
                    if ((input[301]) >= (0.05035743)) {
                        if ((input[573]) >= (0.0662708)) {
                            if ((input[374]) >= (0.00031376898)) {
                                var4 = -0.052539077;
                            } else {
                                var4 = 0.114849806;
                            }
                        } else {
                            if ((input[297]) >= (0.6980254)) {
                                var4 = 0.28583422;
                            } else {
                                var4 = -0.041302755;
                            }
                        }
                    } else {
                        if ((input[378]) >= (0.17101797)) {
                            if ((input[382]) >= (0.47525036)) {
                                var4 = 0.037120726;
                            } else {
                                var4 = 0.30813238;
                            }
                        } else {
                            if ((input[359]) >= (0.0020607137)) {
                                var4 = -0.042648245;
                            } else {
                                var4 = 0.071615376;
                            }
                        }
                    }
                }
            }
        }
        double var5;
        var5 = Math.exp((0.5) + ((var3) + (var4)));
        double var6;
        if ((input[584]) >= (0.019095553)) {
            if ((input[344]) >= (0.075965635)) {
                if ((input[470]) >= (0.029641382)) {
                    if ((input[491]) >= (0.94250023)) {
                        if ((input[371]) >= (0.663417)) {
                            if ((input[233]) >= (0.02212422)) {
                                var6 = -0.047550436;
                            } else {
                                var6 = 0.115384616;
                            }
                        } else {
                            if ((input[544]) >= (0.4170881)) {
                                var6 = 0.34162897;
                            } else {
                                var6 = 0.019230768;
                            }
                        }
                    } else {
                        if ((input[288]) >= (0.022327581)) {
                            if ((input[500]) >= (0.001584272)) {
                                var6 = -0.05466496;
                            } else {
                                var6 = 0.020958083;
                            }
                        } else {
                            if ((input[35]) >= (0.0012430123)) {
                                var6 = -0.041871924;
                            } else {
                                var6 = 0.16346155;
                            }
                        }
                    }
                } else {
                    if ((input[582]) >= (0.08582942)) {
                        if ((input[688]) >= (0.006583397)) {
                            var6 = -0.03977273;
                        } else {
                            if ((input[321]) >= (0.61520773)) {
                                var6 = -0.028846154;
                            } else {
                                var6 = 0.39309213;
                            }
                        }
                    } else {
                        if ((input[8]) >= (0.023340294)) {
                            var6 = 0.019230768;
                        } else {
                            var6 = -0.046357617;
                        }
                    }
                }
            } else {
                if ((input[369]) >= (0.29287854)) {
                    var6 = -0.046875004;
                } else {
                    if ((input[346]) >= (0.36811936)) {
                        if ((input[587]) >= (0.0067385053)) {
                            if ((input[50]) >= (0.008601643)) {
                                var6 = 0.067307696;
                            } else {
                                var6 = 0.35795456;
                            }
                        } else {
                            if ((input[1]) >= (0.0076051024)) {
                                var6 = 0.019230768;
                            } else {
                                var6 = -0.046623796;
                            }
                        }
                    } else {
                        if ((input[712]) >= (0.014069265)) {
                            if ((input[582]) >= (0.13548248)) {
                                var6 = 0.21311477;
                            } else {
                                var6 = -0.038922157;
                            }
                        } else {
                            if ((input[577]) >= (0.00009652778)) {
                                var6 = 0.47874886;
                            } else {
                                var6 = 0.09731544;
                            }
                        }
                    }
                }
            }
        } else {
            if ((input[125]) >= (0.28476176)) {
                if ((input[346]) >= (0.05859921)) {
                    if ((input[638]) >= (0.26153815)) {
                        if ((input[547]) >= (0.075837836)) {
                            var6 = 0.3874598;
                        } else {
                            var6 = -0.003355706;
                        }
                    } else {
                        if ((input[604]) >= (0.07541865)) {
                            if ((input[637]) >= (0.060274605)) {
                                var6 = -0.0024916965;
                            } else {
                                var6 = -0.04828302;
                            }
                        } else {
                            if ((input[186]) >= (0.24598488)) {
                                var6 = 0.22881356;
                            } else {
                                var6 = -0.031229882;
                            }
                        }
                    }
                } else {
                    if ((input[321]) >= (0.09510948)) {
                        if ((input[486]) >= (0.6850468)) {
                            if ((input[292]) >= (0.17745395)) {
                                var6 = 0.033898305;
                            } else {
                                var6 = 0.34265736;
                            }
                        } else {
                            if ((input[582]) >= (0.13480622)) {
                                var6 = 0.13022509;
                            } else {
                                var6 = -0.051442917;
                            }
                        }
                    } else {
                        if ((input[343]) >= (0.18321267)) {
                            if ((input[19]) >= (0.035816938)) {
                                var6 = 0.019230768;
                            } else {
                                var6 = -0.054288324;
                            }
                        } else {
                            if ((input[515]) >= (0.029510263)) {
                                var6 = 0.47060427;
                            } else {
                                var6 = 0.19938938;
                            }
                        }
                    }
                }
            } else {
                if ((input[501]) >= (0.07341431)) {
                    if ((input[371]) >= (0.5557681)) {
                        if ((input[10]) >= (0.000012112926)) {
                            var6 = -0.047752813;
                        } else {
                            var6 = 0.019230768;
                        }
                    } else {
                        if ((input[737]) >= (0.007234263)) {
                            var6 = -0.034351148;
                        } else {
                            if ((input[346]) >= (0.7669789)) {
                                var6 = 0.057522126;
                            } else {
                                var6 = 0.46251175;
                            }
                        }
                    }
                } else {
                    if ((input[564]) >= (0.18627024)) {
                        if ((input[489]) >= (0.65216)) {
                            if ((input[349]) >= (0.07370095)) {
                                var6 = 0.09885387;
                            } else {
                                var6 = 0.4692037;
                            }
                        } else {
                            if ((input[491]) >= (0.97887063)) {
                                var6 = 0.20852017;
                            } else {
                                var6 = -0.029692292;
                            }
                        }
                    } else {
                        if ((input[346]) >= (0.062261283)) {
                            if ((input[556]) >= (0.074503146)) {
                                var6 = 0.09507042;
                            } else {
                                var6 = -0.051803138;
                            }
                        } else {
                            if ((input[539]) >= (0.43400055)) {
                                var6 = 0.07952112;
                            } else {
                                var6 = -0.034927867;
                            }
                        }
                    }
                }
            }
        }
        double var7;
        if ((input[583]) >= (0.0534726)) {
            if ((input[344]) >= (0.08939051)) {
                if ((input[518]) >= (0.5010721)) {
                    if ((input[624]) >= (0.08059898)) {
                        if ((input[372]) >= (0.966805)) {
                            var7 = -0.033855516;
                        } else {
                            var7 = 0.31199133;
                        }
                    } else {
                        if ((input[261]) >= (0.0397067)) {
                            if ((input[428]) >= (0.03390892)) {
                                var7 = -0.04174907;
                            } else {
                                var7 = 0.12887852;
                            }
                        } else {
                            if ((input[149]) >= (0.002319241)) {
                                var7 = 0.2788282;
                            } else {
                                var7 = -0.028180776;
                            }
                        }
                    }
                } else {
                    if ((input[470]) >= (0.03338881)) {
                        if ((input[589]) >= (0.045304865)) {
                            var7 = 0.020309187;
                        } else {
                            var7 = -0.054819793;
                        }
                    } else {
                        if ((input[641]) >= (0.006339033)) {
                            if ((input[269]) >= (0.4848137)) {
                                var7 = 0.2477111;
                            } else {
                                var7 = -0.036896043;
                            }
                        } else {
                            if ((input[102]) >= (0.06885257)) {
                                var7 = 0.119410254;
                            } else {
                                var7 = -0.052010186;
                            }
                        }
                    }
                }
            } else {
                if ((input[545]) >= (0.04432887)) {
                    if ((input[346]) >= (0.36763573)) {
                        if ((input[640]) >= (0.0050426917)) {
                            if ((input[635]) >= (0.3086064)) {
                                var7 = 0.06015108;
                            } else {
                                var7 = 0.3039627;
                            }
                        } else {
                            if ((input[479]) >= (0.011073653)) {
                                var7 = 0.1491208;
                            } else {
                                var7 = -0.047476392;
                            }
                        }
                    } else {
                        if ((input[342]) >= (0.71761775)) {
                            if ((input[308]) >= (0.013838817)) {
                                var7 = 0.021025354;
                            } else {
                                var7 = -0.036834963;
                            }
                        } else {
                            if ((input[742]) >= (0.005990835)) {
                                var7 = 0.06330266;
                            } else {
                                var7 = 0.32119787;
                            }
                        }
                    }
                } else {
                    if ((input[514]) >= (0.27623743)) {
                        if ((input[347]) >= (0.14048664)) {
                            if ((input[659]) >= (0.016963331)) {
                                var7 = -0.041017532;
                            } else {
                                var7 = 0.1623556;
                            }
                        } else {
                            if ((input[369]) >= (0.03485199)) {
                                var7 = 0.016094534;
                            } else {
                                var7 = 0.30458197;
                            }
                        }
                    } else {
                        if ((input[613]) >= (0.03212174)) {
                            var7 = 0.1739552;
                        } else {
                            if ((input[126]) >= (0.78706414)) {
                                var7 = 0.09825008;
                            } else {
                                var7 = -0.04948747;
                            }
                        }
                    }
                }
            }
        } else {
            if ((input[318]) >= (0.054618485)) {
                if ((input[501]) >= (0.094912484)) {
                    if ((input[372]) >= (0.73225945)) {
                        if ((input[247]) >= (0.0027202033)) {
                            var7 = -0.04557621;
                        } else {
                            var7 = 0.06868439;
                        }
                    } else {
                        if ((input[687]) >= (0.00029372337)) {
                            var7 = 0.030840198;
                        } else {
                            if ((input[604]) >= (0.15479395)) {
                                var7 = 0.08141521;
                            } else {
                                var7 = 0.2940974;
                            }
                        }
                    }
                } else {
                    if ((input[374]) >= (0.039039478)) {
                        if ((input[639]) >= (0.0867528)) {
                            if ((input[155]) >= (0.42618215)) {
                                var7 = 0.23110285;
                            } else {
                                var7 = -0.040570315;
                            }
                        } else {
                            if ((input[479]) >= (0.39329445)) {
                                var7 = 0.05876821;
                            } else {
                                var7 = -0.051803347;
                            }
                        }
                    } else {
                        if ((input[543]) >= (0.78715205)) {
                            if ((input[594]) >= (0.3528192)) {
                                var7 = 0.27844864;
                            } else {
                                var7 = 0.009069511;
                            }
                        } else {
                            if ((input[513]) >= (0.7744692)) {
                                var7 = 0.025351018;
                            } else {
                                var7 = -0.045528058;
                            }
                        }
                    }
                }
            } else {
                if ((input[512]) >= (0.1412237)) {
                    if ((input[321]) >= (0.10541909)) {
                        if ((input[501]) >= (0.022232339)) {
                            if ((input[237]) >= (0.023525193)) {
                                var7 = 0.31213102;
                            } else {
                                var7 = -0.02869919;
                            }
                        } else {
                            if ((input[608]) >= (0.1522489)) {
                                var7 = 0.09471406;
                            } else {
                                var7 = -0.034705512;
                            }
                        }
                    } else {
                        if ((input[315]) >= (0.08037101)) {
                            if ((input[371]) >= (0.047166713)) {
                                var7 = -0.052375514;
                            } else {
                                var7 = 0.13160564;
                            }
                        } else {
                            if ((input[522]) >= (0.00000006640585)) {
                                var7 = 0.30387297;
                            } else {
                                var7 = -0.032247733;
                            }
                        }
                    }
                } else {
                    if ((input[123]) >= (0.07661965)) {
                        if ((input[543]) >= (0.44680834)) {
                            if ((input[320]) >= (0.077090755)) {
                                var7 = 0.024639428;
                            } else {
                                var7 = 0.30202132;
                            }
                        } else {
                            if ((input[350]) >= (0.11541824)) {
                                var7 = -0.045728683;
                            } else {
                                var7 = 0.15194203;
                            }
                        }
                    } else {
                        if ((input[482]) >= (0.39862937)) {
                            if ((input[544]) >= (0.58328664)) {
                                var7 = 0.27674815;
                            } else {
                                var7 = 0.009330157;
                            }
                        } else {
                            if ((input[528]) >= (0.02009733)) {
                                var7 = 0.19061966;
                            } else {
                                var7 = -0.042526767;
                            }
                        }
                    }
                }
            }
        }
        double var8;
        var8 = Math.exp((0.5) + ((var6) + (var7)));
        double var9;
        if ((input[350]) >= (0.52647185)) {
            if ((input[489]) >= (0.08884862)) {
                if ((input[517]) >= (0.053636026)) {
                    if ((input[592]) >= (0.39274114)) {
                        if ((input[482]) >= (0.03125891)) {
                            if ((input[101]) >= (0.13936654)) {
                                var9 = 0.115384616;
                            } else {
                                var9 = -0.04347826;
                            }
                        } else {
                            var9 = 0.31900454;
                        }
                    } else {
                        if ((input[177]) >= (0.23859835)) {
                            if ((input[544]) >= (0.14256144)) {
                                var9 = -0.028837463;
                            } else {
                                var9 = 0.1602434;
                            }
                        } else {
                            if ((input[434]) >= (0.35808814)) {
                                var9 = -0.051339615;
                            } else {
                                var9 = -0.010820335;
                            }
                        }
                    }
                } else {
                    if ((input[514]) >= (0.15791059)) {
                        if ((input[229]) >= (0.10611517)) {
                            if ((input[70]) >= (0.0046135867)) {
                                var9 = 0.27876106;
                            } else {
                                var9 = 0.019230768;
                            }
                        } else {
                            if ((input[452]) >= (0.035890967)) {
                                var9 = 0.115384616;
                            } else {
                                var9 = -0.04650239;
                            }
                        }
                    } else {
                        if ((input[404]) >= (0.6281859)) {
                            if ((input[317]) >= (0.30198795)) {
                                var9 = 0.08213257;
                            } else {
                                var9 = 0.44570586;
                            }
                        } else {
                            if ((input[652]) >= (0.37913042)) {
                                var9 = 0.16346155;
                            } else {
                                var9 = -0.05124224;
                            }
                        }
                    }
                }
            } else {
                if ((input[290]) >= (0.18496674)) {
                    if ((input[147]) >= (0.10292565)) {
                        if ((input[261]) >= (0.44853544)) {
                            if ((input[238]) >= (0.957096)) {
                                var9 = 0.23154362;
                            } else {
                                var9 = -0.049199086;
                            }
                        } else {
                            if ((input[258]) >= (0.6388967)) {
                                var9 = 0.019230768;
                            } else {
                                var9 = 0.45535716;
                            }
                        }
                    } else {
                        if ((input[318]) >= (0.23240787)) {
                            if ((input[262]) >= (0.12500472)) {
                                var9 = -0.025117407;
                            } else {
                                var9 = 0.08631256;
                            }
                        } else {
                            if ((input[371]) >= (0.1671807)) {
                                var9 = -0.045087487;
                            } else {
                                var9 = 0.2501358;
                            }
                        }
                    }
                } else {
                    if ((input[486]) >= (0.2683789)) {
                        if ((input[486]) >= (0.545948)) {
                            if ((input[431]) >= (0.077927455)) {
                                var9 = -0.027348865;
                            } else {
                                var9 = 0.24226804;
                            }
                        } else {
                            if ((input[179]) >= (0.019235754)) {
                                var9 = 0.2851003;
                            } else {
                                var9 = -0.049327355;
                            }
                        }
                    } else {
                        if ((input[655]) >= (0.03863737)) {
                            if ((input[315]) >= (0.42093658)) {
                                var9 = 0.03772582;
                            } else {
                                var9 = 0.44592687;
                            }
                        } else {
                            if ((input[627]) >= (0.1825839)) {
                                var9 = 0.32831118;
                            } else {
                                var9 = 0.056962024;
                            }
                        }
                    }
                }
            }
        } else {
            if ((input[378]) >= (0.7386892)) {
                if ((input[592]) >= (0.05366121)) {
                    if ((input[515]) >= (0.11522806)) {
                        if ((input[521]) >= (0.96364325)) {
                            var9 = 0.10714286;
                        } else {
                            if ((input[9]) >= (0.019301742)) {
                                var9 = 0.019230768;
                            } else {
                                var9 = -0.050699305;
                            }
                        }
                    } else {
                        if ((input[319]) >= (0.24153365)) {
                            if ((input[324]) >= (0.06490949)) {
                                var9 = 0.15909092;
                            } else {
                                var9 = -0.04862843;
                            }
                        } else {
                            if ((input[454]) >= (0.06321256)) {
                                var9 = 0.0508982;
                            } else {
                                var9 = 0.4601367;
                            }
                        }
                    }
                } else {
                    if ((input[89]) >= (0.0011417225)) {
                        if ((input[316]) >= (0.19771686)) {
                            if ((input[287]) >= (0.05585114)) {
                                var9 = -0.04160126;
                            } else {
                                var9 = 0.19798659;
                            }
                        } else {
                            if ((input[514]) >= (0.6547651)) {
                                var9 = -0.039419092;
                            } else {
                                var9 = 0.3047193;
                            }
                        }
                    } else {
                        if ((input[318]) >= (0.12586133)) {
                            if ((input[294]) >= (0.94933665)) {
                                var9 = 0.025616696;
                            } else {
                                var9 = -0.050274342;
                            }
                        } else {
                            if ((input[543]) >= (0.052448336)) {
                                var9 = -0.045734845;
                            } else {
                                var9 = 0.13039868;
                            }
                        }
                    }
                }
            } else {
                if ((input[322]) >= (0.72710973)) {
                    if ((input[151]) >= (0.14307591)) {
                        if ((input[261]) >= (0.15001479)) {
                            if ((input[94]) >= (0.036225017)) {
                                var9 = 0.12162162;
                            } else {
                                var9 = -0.033216786;
                            }
                        } else {
                            if ((input[457]) >= (0.073942244)) {
                                var9 = 0.08158996;
                            } else {
                                var9 = 0.4172414;
                            }
                        }
                    } else {
                        if ((input[179]) >= (0.17950028)) {
                            if ((input[290]) >= (0.115075536)) {
                                var9 = -0.050774526;
                            } else {
                                var9 = 0.28476822;
                            }
                        } else {
                            if ((input[99]) >= (0.24667476)) {
                                var9 = 0.122641504;
                            } else {
                                var9 = -0.050198533;
                            }
                        }
                    }
                } else {
                    if ((input[646]) >= (0.13253564)) {
                        var9 = 0.2540984;
                    } else {
                        if ((input[177]) >= (0.5219008)) {
                            if ((input[293]) >= (0.7531104)) {
                                var9 = 0.15128756;
                            } else {
                                var9 = -0.034715753;
                            }
                        } else {
                            if ((input[649]) >= (0.66702926)) {
                                var9 = 0.02105263;
                            } else {
                                var9 = -0.05018943;
                            }
                        }
                    }
                }
            }
        }
        double var10;
        if ((input[350]) >= (0.52647185)) {
            if ((input[489]) >= (0.091567695)) {
                if ((input[517]) >= (0.053636026)) {
                    if ((input[563]) >= (0.08420323)) {
                        if ((input[351]) >= (0.8347627)) {
                            if ((input[579]) >= (0.2630887)) {
                                var10 = 0.014084764;
                            } else {
                                var10 = 0.29224202;
                            }
                        } else {
                            var10 = -0.034236524;
                        }
                    } else {
                        if ((input[177]) >= (0.23859835)) {
                            if ((input[544]) >= (0.14256144)) {
                                var10 = -0.027672654;
                            } else {
                                var10 = 0.13520202;
                            }
                        } else {
                            if ((input[434]) >= (0.35808814)) {
                                var10 = -0.05059227;
                            } else {
                                var10 = -0.008971409;
                            }
                        }
                    }
                } else {
                    if ((input[515]) >= (0.20724392)) {
                        if ((input[257]) >= (0.021317355)) {
                            if ((input[65]) >= (0.0077953935)) {
                                var10 = -0.033833634;
                            } else {
                                var10 = 0.19434786;
                            }
                        } else {
                            var10 = -0.05386257;
                        }
                    } else {
                        if ((input[656]) >= (0.11323219)) {
                            if ((input[483]) >= (0.06508437)) {
                                var10 = 0.056360196;
                            } else {
                                var10 = 0.3050386;
                            }
                        } else {
                            if ((input[56]) >= (0.0015459663)) {
                                var10 = 0.14606504;
                            } else {
                                var10 = -0.032571875;
                            }
                        }
                    }
                }
            } else {
                if ((input[290]) >= (0.20533949)) {
                    if ((input[147]) >= (0.06839247)) {
                        if ((input[261]) >= (0.44853544)) {
                            if ((input[237]) >= (0.9369924)) {
                                var10 = 0.20569329;
                            } else {
                                var10 = -0.0497837;
                            }
                        } else {
                            if ((input[286]) >= (0.5491766)) {
                                var10 = -0.029502733;
                            } else {
                                var10 = 0.30420795;
                            }
                        }
                    } else {
                        if ((input[318]) >= (0.23404068)) {
                            if ((input[262]) >= (0.12829232)) {
                                var10 = -0.02716356;
                            } else {
                                var10 = 0.08232196;
                            }
                        } else {
                            if ((input[344]) >= (0.14737767)) {
                                var10 = -0.017931378;
                            } else {
                                var10 = 0.20353906;
                            }
                        }
                    }
                } else {
                    if ((input[180]) >= (0.06412706)) {
                        if ((input[486]) >= (0.5305239)) {
                            if ((input[438]) >= (0.9362136)) {
                                var10 = 0.18069653;
                            } else {
                                var10 = -0.023765486;
                            }
                        } else {
                            if ((input[316]) >= (0.66059893)) {
                                var10 = -0.027522732;
                            } else {
                                var10 = 0.2969204;
                            }
                        }
                    } else {
                        if ((input[152]) >= (0.06697134)) {
                            if ((input[487]) >= (0.17966677)) {
                                var10 = -0.014864168;
                            } else {
                                var10 = 0.29640183;
                            }
                        } else {
                            if ((input[564]) >= (0.2069977)) {
                                var10 = 0.16518113;
                            } else {
                                var10 = -0.01461329;
                            }
                        }
                    }
                }
            }
        } else {
            if ((input[378]) >= (0.44804013)) {
                if ((input[620]) >= (0.032420054)) {
                    if ((input[513]) >= (0.05499222)) {
                        if ((input[514]) >= (0.69460595)) {
                            var10 = -0.05223455;
                        } else {
                            if ((input[353]) >= (0.88257635)) {
                                var10 = 0.185981;
                            } else {
                                var10 = -0.036610033;
                            }
                        }
                    } else {
                        if ((input[326]) >= (0.14355722)) {
                            if ((input[454]) >= (0.57042956)) {
                                var10 = -0.032411512;
                            } else {
                                var10 = 0.32012442;
                            }
                        } else {
                            if ((input[150]) >= (0.07938548)) {
                                var10 = 0.1681622;
                            } else {
                                var10 = -0.038102176;
                            }
                        }
                    }
                } else {
                    if ((input[32]) >= (0.00002067015)) {
                        if ((input[321]) >= (0.63888764)) {
                            if ((input[272]) >= (0.091333516)) {
                                var10 = 0.01915646;
                            } else {
                                var10 = 0.34302422;
                            }
                        } else {
                            if ((input[656]) >= (0.60801727)) {
                                var10 = 0.13763015;
                            } else {
                                var10 = -0.018114943;
                            }
                        }
                    } else {
                        if ((input[346]) >= (0.15419357)) {
                            if ((input[263]) >= (0.021277072)) {
                                var10 = -0.05123776;
                            } else {
                                var10 = 0.011793387;
                            }
                        } else {
                            if ((input[544]) >= (0.055691943)) {
                                var10 = -0.043827083;
                            } else {
                                var10 = 0.06222908;
                            }
                        }
                    }
                }
            } else {
                if ((input[322]) >= (0.72710973)) {
                    if ((input[152]) >= (0.4229356)) {
                        if ((input[261]) >= (0.1435807)) {
                            if ((input[239]) >= (0.11431332)) {
                                var10 = 0.10502192;
                            } else {
                                var10 = -0.04769234;
                            }
                        } else {
                            if ((input[218]) >= (0.02299048)) {
                                var10 = 0.008724407;
                            } else {
                                var10 = 0.28703907;
                            }
                        }
                    } else {
                        if ((input[178]) >= (0.05550478)) {
                            if ((input[290]) >= (0.027833555)) {
                                var10 = -0.027349878;
                            } else {
                                var10 = 0.2640624;
                            }
                        } else {
                            if ((input[99]) >= (0.24667476)) {
                                var10 = 0.10857769;
                            } else {
                                var10 = -0.04850779;
                            }
                        }
                    }
                } else {
                    if ((input[177]) >= (0.52621865)) {
                        if ((input[293]) >= (0.7531104)) {
                            if ((input[233]) >= (0.61680686)) {
                                var10 = -0.016612355;
                            } else {
                                var10 = 0.28012484;
                            }
                        } else {
                            if ((input[406]) >= (0.9511473)) {
                                var10 = 0.035485636;
                            } else {
                                var10 = -0.044208605;
                            }
                        }
                    } else {
                        if ((input[534]) >= (0.48941946)) {
                            var10 = 0.10504591;
                        } else {
                            if ((input[345]) >= (0.07144455)) {
                                var10 = -0.053774863;
                            } else {
                                var10 = -0.045110114;
                            }
                        }
                    }
                }
            }
        }
        double var11;
        var11 = Math.exp((0.5) + ((var9) + (var10)));
        double var12;
        if ((input[211]) >= (0.0347011)) {
            if ((input[429]) >= (0.61133707)) {
                if ((input[209]) >= (0.051082835)) {
                    if ((input[212]) >= (0.059911326)) {
                        if ((input[597]) >= (0.058781788)) {
                            if ((input[604]) >= (0.010782581)) {
                                var12 = -0.05385055;
                            } else {
                                var12 = -0.0127136335;
                            }
                        } else {
                            if ((input[234]) >= (0.031163398)) {
                                var12 = -0.03261539;
                            } else {
                                var12 = 0.109886125;
                            }
                        }
                    } else {
                        if ((input[736]) >= (0.000002786719)) {
                            if ((input[295]) >= (0.29401112)) {
                                var12 = 0.030075187;
                            } else {
                                var12 = 0.43035194;
                            }
                        } else {
                            if ((input[271]) >= (0.17644641)) {
                                var12 = 0.099820144;
                            } else {
                                var12 = -0.03924117;
                            }
                        }
                    }
                } else {
                    if ((input[597]) >= (0.033134665)) {
                        if ((input[568]) >= (0.064103685)) {
                            if ((input[533]) >= (0.039154306)) {
                                var12 = 0.09731544;
                            } else {
                                var12 = -0.049108412;
                            }
                        } else {
                            if ((input[629]) >= (0.018748384)) {
                                var12 = 0.039700802;
                            } else {
                                var12 = 0.28476822;
                            }
                        }
                    } else {
                        if ((input[265]) >= (0.76406556)) {
                            if ((input[497]) >= (0.026547894)) {
                                var12 = 0.21854305;
                            } else {
                                var12 = -0.022496374;
                            }
                        } else {
                            if ((input[542]) >= (0.5856827)) {
                                var12 = 0.028875379;
                            } else {
                                var12 = 0.43381038;
                            }
                        }
                    }
                }
            } else {
                if ((input[629]) >= (0.015633022)) {
                    if ((input[401]) >= (0.08531571)) {
                        if ((input[212]) >= (0.016980123)) {
                            if ((input[627]) >= (0.018896809)) {
                                var12 = -0.0505504;
                            } else {
                                var12 = -0.006647867;
                            }
                        } else {
                            if ((input[578]) >= (0.036066145)) {
                                var12 = -0.036663126;
                            } else {
                                var12 = 0.18916519;
                            }
                        }
                    } else {
                        if ((input[449]) >= (0.07218525)) {
                            var12 = 0.067307696;
                        } else {
                            if ((input[750]) >= (0.04628835)) {
                                var12 = 0.025316453;
                            } else {
                                var12 = -0.053847786;
                            }
                        }
                    }
                } else {
                    if ((input[373]) >= (0.09087152)) {
                        if ((input[209]) >= (0.02888292)) {
                            if ((input[208]) >= (0.04321859)) {
                                var12 = -0.02119599;
                            } else {
                                var12 = 0.1;
                            }
                        } else {
                            if ((input[293]) >= (0.06873232)) {
                                var12 = 0.022673031;
                            } else {
                                var12 = 0.39342806;
                            }
                        }
                    } else {
                        if ((input[403]) >= (0.8032098)) {
                            if ((input[599]) >= (0.01670572)) {
                                var12 = -0.04271357;
                            } else {
                                var12 = 0.11618258;
                            }
                        } else {
                            if ((input[427]) >= (0.9607133)) {
                                var12 = 0.014925371;
                            } else {
                                var12 = -0.051799566;
                            }
                        }
                    }
                }
            }
        } else {
            if ((input[400]) >= (0.12788984)) {
                if ((input[570]) >= (0.0800636)) {
                    if ((input[162]) >= (0.13027301)) {
                        if ((input[567]) >= (0.13481392)) {
                            if ((input[598]) >= (0.42488366)) {
                                var12 = -0.038793106;
                            } else {
                                var12 = 0.21590911;
                            }
                        } else {
                            if ((input[409]) >= (0.09294419)) {
                                var12 = 0.46842107;
                            } else {
                                var12 = 0.057522126;
                            }
                        }
                    } else {
                        if ((input[714]) >= (0.000014743857)) {
                            if ((input[267]) >= (0.27097917)) {
                                var12 = -0.013126494;
                            } else {
                                var12 = 0.32851988;
                            }
                        } else {
                            if ((input[575]) >= (0.017793514)) {
                                var12 = -0.04239878;
                            } else {
                                var12 = 0.08877786;
                            }
                        }
                    }
                } else {
                    if ((input[294]) >= (0.19569278)) {
                        if ((input[295]) >= (0.05710783)) {
                            if ((input[104]) >= (0.014148913)) {
                                var12 = 0.08506224;
                            } else {
                                var12 = -0.03929122;
                            }
                        } else {
                            if ((input[546]) >= (0.10522864)) {
                                var12 = 0.37903225;
                            } else {
                                var12 = -0.030973453;
                            }
                        }
                    } else {
                        if ((input[126]) >= (0.08569819)) {
                            if ((input[524]) >= (0.030316265)) {
                                var12 = -0.025164116;
                            } else {
                                var12 = 0.17845659;
                            }
                        } else {
                            if ((input[185]) >= (0.000000035160745)) {
                                var12 = 0.48165068;
                            } else {
                                var12 = 0.24588577;
                            }
                        }
                    }
                }
            } else {
                if ((input[374]) >= (0.4893974)) {
                    if ((input[715]) >= (0.000010450168)) {
                        if ((input[294]) >= (0.19690886)) {
                            if ((input[435]) >= (0.8943436)) {
                                var12 = 0.119205296;
                            } else {
                                var12 = -0.051181108;
                            }
                        } else {
                            if ((input[155]) >= (0.29507655)) {
                                var12 = -0.03971487;
                            } else {
                                var12 = 0.43146774;
                            }
                        }
                    } else {
                        if ((input[571]) >= (0.050492965)) {
                            if ((input[739]) >= (0.00198745)) {
                                var12 = 0.23451328;
                            } else {
                                var12 = -0.041828454;
                            }
                        } else {
                            if ((input[350]) >= (0.10576914)) {
                                var12 = -0.04495913;
                            } else {
                                var12 = 0.24405852;
                            }
                        }
                    }
                } else {
                    if ((input[426]) >= (0.4090436)) {
                        if ((input[458]) >= (0.23842677)) {
                            if ((input[294]) >= (0.03815499)) {
                                var12 = -0.01546392;
                            } else {
                                var12 = 0.36013988;
                            }
                        } else {
                            if ((input[486]) >= (0.37872478)) {
                                var12 = 0.08158996;
                            } else {
                                var12 = -0.053016454;
                            }
                        }
                    } else {
                        if ((input[375]) >= (0.6473528)) {
                            if ((input[715]) >= (0.0002691395)) {
                                var12 = 0.097039476;
                            } else {
                                var12 = -0.037243154;
                            }
                        } else {
                            if ((input[401]) >= (0.78657985)) {
                                var12 = 0.11832061;
                            } else {
                                var12 = -0.053531718;
                            }
                        }
                    }
                }
            }
        }
        double var13;
        if ((input[211]) >= (0.0347011)) {
            if ((input[401]) >= (0.58832204)) {
                if ((input[209]) >= (0.04524087)) {
                    if ((input[213]) >= (0.0492168)) {
                        if ((input[627]) >= (0.0468553)) {
                            if ((input[212]) >= (0.051170416)) {
                                var13 = -0.05060017;
                            } else {
                                var13 = 0.047537398;
                            }
                        } else {
                            if ((input[234]) >= (0.040269777)) {
                                var13 = -0.03071413;
                            } else {
                                var13 = 0.079504274;
                            }
                        }
                    } else {
                        if ((input[218]) >= (0.05309835)) {
                            if ((input[130]) >= (0.10849793)) {
                                var13 = -0.0486819;
                            } else {
                                var13 = 0.32766506;
                            }
                        } else {
                            if ((input[570]) >= (0.09922416)) {
                                var13 = -0.04986788;
                            } else {
                                var13 = 0.075345285;
                            }
                        }
                    }
                } else {
                    if ((input[599]) >= (0.048579223)) {
                        if ((input[576]) >= (0.033783264)) {
                            if ((input[490]) >= (0.9968407)) {
                                var13 = 0.11615654;
                            } else {
                                var13 = -0.043515988;
                            }
                        } else {
                            if ((input[434]) >= (0.5769297)) {
                                var13 = 0.1697696;
                            } else {
                                var13 = -0.008291441;
                            }
                        }
                    } else {
                        if ((input[683]) >= (0.059474673)) {
                            if ((input[229]) >= (0.01106136)) {
                                var13 = 0.12871763;
                            } else {
                                var13 = -0.05019744;
                            }
                        } else {
                            if ((input[273]) >= (0.27227467)) {
                                var13 = -0.007345618;
                            } else {
                                var13 = 0.29822782;
                            }
                        }
                    }
                }
            } else {
                if ((input[629]) >= (0.02455011)) {
                    if ((input[429]) >= (0.16984662)) {
                        if ((input[569]) >= (0.02647866)) {
                            if ((input[597]) >= (0.0010563015)) {
                                var13 = -0.05264401;
                            } else {
                                var13 = 0.058282167;
                            }
                        } else {
                            if ((input[209]) >= (0.022119373)) {
                                var13 = -0.01720271;
                            } else {
                                var13 = 0.16798702;
                            }
                        }
                    } else {
                        if ((input[463]) >= (0.9999999)) {
                            if ((input[438]) >= (0.36330247)) {
                                var13 = 0.11882005;
                            } else {
                                var13 = -0.03985481;
                            }
                        } else {
                            if ((input[212]) >= (0.0145351)) {
                                var13 = -0.053825904;
                            } else {
                                var13 = -0.03902858;
                            }
                        }
                    }
                } else {
                    if ((input[570]) >= (0.08385538)) {
                        if ((input[401]) >= (0.5497621)) {
                            if ((input[126]) >= (0.0051334947)) {
                                var13 = -0.042115625;
                            } else {
                                var13 = 0.16866095;
                            }
                        } else {
                            if ((input[398]) >= (0.9959763)) {
                                var13 = 0.048661225;
                            } else {
                                var13 = -0.050896533;
                            }
                        }
                    } else {
                        if ((input[208]) >= (0.043410063)) {
                            if ((input[210]) >= (0.045544077)) {
                                var13 = -0.03865389;
                            } else {
                                var13 = 0.10301311;
                            }
                        } else {
                            if ((input[156]) >= (0.030975789)) {
                                var13 = 0.26669368;
                            } else {
                                var13 = 0.034871854;
                            }
                        }
                    }
                }
            }
        } else {
            if ((input[429]) >= (0.19090885)) {
                if ((input[570]) >= (0.08288864)) {
                    if ((input[708]) >= (0.0005577872)) {
                        if ((input[268]) >= (0.736634)) {
                            if ((input[466]) >= (0.6524708)) {
                                var13 = 0.112096034;
                            } else {
                                var13 = -0.046389237;
                            }
                        } else {
                            if ((input[154]) >= (0.4886483)) {
                                var13 = -0.038540713;
                            } else {
                                var13 = 0.31249252;
                            }
                        }
                    } else {
                        if ((input[162]) >= (0.15014127)) {
                            if ((input[567]) >= (0.25475177)) {
                                var13 = -0.0127395885;
                            } else {
                                var13 = 0.2598581;
                            }
                        } else {
                            if ((input[125]) >= (0.009171495)) {
                                var13 = -0.049556237;
                            } else {
                                var13 = 0.023173593;
                            }
                        }
                    }
                } else {
                    if ((input[267]) >= (0.31407857)) {
                        if ((input[186]) >= (0.19658992)) {
                            if ((input[461]) >= (0.27908662)) {
                                var13 = 0.25777727;
                            } else {
                                var13 = -0.007951929;
                            }
                        } else {
                            if ((input[264]) >= (0.010774934)) {
                                var13 = -0.045213044;
                            } else {
                                var13 = 0.10145068;
                            }
                        }
                    } else {
                        if ((input[127]) >= (0.07360711)) {
                            if ((input[206]) >= (0.01627379)) {
                                var13 = -0.049319856;
                            } else {
                                var13 = 0.10254798;
                            }
                        } else {
                            if ((input[95]) >= (0.09835762)) {
                                var13 = 0.0005641025;
                            } else {
                                var13 = 0.30207738;
                            }
                        }
                    }
                }
            } else {
                if ((input[374]) >= (0.6384617)) {
                    if ((input[771]) >= (0.0000033506822)) {
                        if ((input[294]) >= (0.1951808)) {
                            if ((input[102]) >= (0.02382765)) {
                                var13 = 0.112820365;
                            } else {
                                var13 = -0.04361061;
                            }
                        } else {
                            if ((input[155]) >= (0.5791811)) {
                                var13 = -0.04510453;
                            } else {
                                var13 = 0.2886328;
                            }
                        }
                    } else {
                        if ((input[717]) >= (0.0034556515)) {
                            if ((input[153]) >= (0.03659818)) {
                                var13 = -0.03636915;
                            } else {
                                var13 = 0.24867053;
                            }
                        } else {
                            if ((input[742]) >= (0.0020089464)) {
                                var13 = 0.112148724;
                            } else {
                                var13 = -0.041858196;
                            }
                        }
                    }
                } else {
                    if ((input[427]) >= (0.29521763)) {
                        if ((input[486]) >= (0.29330617)) {
                            if ((input[186]) >= (0.00020975224)) {
                                var13 = 0.2780654;
                            } else {
                                var13 = -0.011342883;
                            }
                        } else {
                            if ((input[525]) >= (0.00084507023)) {
                                var13 = -0.048360053;
                            } else {
                                var13 = 0.096216574;
                            }
                        }
                    } else {
                        if ((input[375]) >= (0.64258575)) {
                            if ((input[740]) >= (0.0017420617)) {
                                var13 = 0.09635388;
                            } else {
                                var13 = -0.0409685;
                            }
                        } else {
                            if ((input[453]) >= (0.8033242)) {
                                var13 = 0.030029047;
                            } else {
                                var13 = -0.05260808;
                            }
                        }
                    }
                }
            }
        }
        double var14;
        var14 = Math.exp((0.5) + ((var12) + (var13)));
        double var15;
        if ((input[193]) >= (0.00025384934)) {
            if ((input[328]) >= (0.12075625)) {
                if ((input[382]) >= (0.054705977)) {
                    if ((input[301]) >= (0.022211026)) {
                        if ((input[355]) >= (0.07384093)) {
                            if ((input[277]) >= (0.86478364)) {
                                var15 = 0.019230768;
                            } else {
                                var15 = -0.0551099;
                            }
                        } else {
                            var15 = 0.10176992;
                        }
                    } else {
                        if ((input[323]) >= (0.057151984)) {
                            var15 = 0.2596154;
                        } else {
                            var15 = -0.030973453;
                        }
                    }
                } else {
                    if ((input[296]) >= (0.5707052)) {
                        if ((input[413]) >= (0.04577569)) {
                            var15 = -0.030973453;
                        } else {
                            var15 = 0.4471459;
                        }
                    } else {
                        if ((input[184]) >= (0.03290763)) {
                            var15 = -0.047337282;
                        } else {
                            var15 = 0.11832061;
                        }
                    }
                }
            } else {
                if ((input[386]) >= (0.13754117)) {
                    if ((input[275]) >= (0.010181403)) {
                        var15 = -0.052486192;
                    } else {
                        var15 = 0.115384616;
                    }
                } else {
                    if ((input[326]) >= (0.5610155)) {
                        if ((input[380]) >= (0.16003518)) {
                            if ((input[14]) >= (0.023514992)) {
                                var15 = 0.019230768;
                            } else {
                                var15 = -0.049065422;
                            }
                        } else {
                            var15 = 0.30113637;
                        }
                    } else {
                        if ((input[79]) >= (0.053423956)) {
                            if ((input[484]) >= (0.38849062)) {
                                var15 = -0.04435484;
                            } else {
                                var15 = 0.21153846;
                            }
                        } else {
                            if ((input[514]) >= (0.7273439)) {
                                var15 = 0.25954738;
                            } else {
                                var15 = 0.48112994;
                            }
                        }
                    }
                }
            }
        } else {
            if ((input[277]) >= (0.11996877)) {
                if ((input[383]) >= (0.14377421)) {
                    if ((input[517]) >= (0.044740666)) {
                        var15 = -0.052030463;
                    } else {
                        if ((input[10]) >= (0.0027209476)) {
                            var15 = -0.028846154;
                        } else {
                            var15 = 0.16346155;
                        }
                    }
                } else {
                    if ((input[469]) >= (0.05026531)) {
                        var15 = -0.045454547;
                    } else {
                        if ((input[353]) >= (0.6022527)) {
                            if ((input[8]) >= (0.0003036684)) {
                                var15 = -0.035714287;
                            } else {
                                var15 = 0.067307696;
                            }
                        } else {
                            if ((input[95]) >= (0.026140401)) {
                                var15 = 0.115384616;
                            } else {
                                var15 = 0.4817407;
                            }
                        }
                    }
                }
            } else {
                if ((input[298]) >= (0.088296756)) {
                    if ((input[276]) >= (0.12562168)) {
                        if ((input[357]) >= (0.03504032)) {
                            if ((input[275]) >= (0.3838765)) {
                                var15 = -0.04149798;
                            } else {
